<?xml version="1.0"?>
<opencv_storage>
<cascade>
  <stageType>BOOST</stageType>
  <featureType>HAAR</featureType>
  <height>72</height>
  <width>72</width>
  <stageParams>
    <boostType>GAB</boostType>
    <minHitRate>9.9500000476837158e-01</minHitRate>
    <maxFalseAlarm>5.0000000000000000e-01</maxFalseAlarm>
    <weightTrimRate>9.4999998807907104e-01</weightTrimRate>
    <maxDepth>1</maxDepth>
    <maxWeakCount>100</maxWeakCount></stageParams>
  <featureParams>
    <maxCatCount>0</maxCatCount>
    <featSize>1</featSize>
    <mode>BASIC</mode></featureParams>
  <stageNum>5</stageNum>
  <stages>
    <!-- stage 0 -->
    <_>
      <maxWeakCount>8</maxWeakCount>
      <stageThreshold>-1.4028708934783936e+00</stageThreshold>
      <weakClassifiers>
        <_>
          <internalNodes>
            0 -1 26 5.5669667199254036e-03</internalNodes>
          <leafValues>
            -6.5384614467620850e-01 6.9948184490203857e-01</leafValues></_>
        <_>
          <internalNodes>
            0 -1 21 -9.0366721153259277e-02</internalNodes>
          <leafValues>
            7.6173615455627441e-01 -3.6510843038558960e-01</leafValues></_>
        <_>
          <internalNodes>
            0 -1 13 8.0023713409900665e-02</internalNodes>
          <leafValues>
            -2.7898201346397400e-01 9.1794151067733765e-01</leafValues></_>
        <_>
          <internalNodes>
            0 -1 19 -3.1600110232830048e-03</internalNodes>
          <leafValues>
            -6.1913549900054932e-01 3.9644980430603027e-01</leafValues></_>
        <_>
          <internalNodes>
            0 -1 2 3.2079806551337242e-03</internalNodes>
          <leafValues>
            -7.0555943250656128e-01 3.7227320671081543e-01</leafValues></_>
        <_>
          <internalNodes>
            0 -1 22 -2.9177498072385788e-03</internalNodes>
          <leafValues>
            3.7523004412651062e-01 -6.0802167654037476e-01</leafValues></_>
        <_>
          <internalNodes>
            0 -1 7 4.8033581115305424e-03</internalNodes>
          <leafValues>
            -3.7514027953147888e-01 6.9248342514038086e-01</leafValues></_>
        <_>
          <internalNodes>
            0 -1 8 1.7107740044593811e-01</internalNodes>
          <leafValues>
            -2.2823813557624817e-01 9.0116882324218750e-01</leafValues></_></weakClassifiers></_>
    <!-- stage 1 -->
    <_>
      <maxWeakCount>8</maxWeakCount>
      <stageThreshold>-1.1275535821914673e+00</stageThreshold>
      <weakClassifiers>
        <_>
          <internalNodes>
            0 -1 14 1.5246069058775902e-02</internalNodes>
          <leafValues>
            -5.8125001192092896e-01 8.0645161867141724e-01</leafValues></_>
        <_>
          <internalNodes>
            0 -1 18 -1.6605961718596518e-04</internalNodes>
          <leafValues>
            4.3167969584465027e-01 -7.2685277462005615e-01</leafValues></_>
        <_>
          <internalNodes>
            0 -1 3 2.5654314085841179e-03</internalNodes>
          <leafValues>
            -3.5879525542259216e-01 6.6285246610641479e-01</leafValues></_>
        <_>
          <internalNodes>
            0 -1 10 1.7217441927641630e-03</internalNodes>
          <leafValues>
            -5.3366643190383911e-01 4.2848166823387146e-01</leafValues></_>
        <_>
          <internalNodes>
            0 -1 16 2.6900572702288628e-03</internalNodes>
          <leafValues>
            3.2478636503219604e-01 -7.9010230302810669e-01</leafValues></_>
        <_>
          <internalNodes>
            0 -1 0 1.8855422968044877e-03</internalNodes>
          <leafValues>
            -4.1228422522544861e-01 6.6333538293838501e-01</leafValues></_>
        <_>
          <internalNodes>
            0 -1 15 1.2944558262825012e-01</internalNodes>
          <leafValues>
            -2.6207494735717773e-01 9.2030423879623413e-01</leafValues></_>
        <_>
          <internalNodes>
            0 -1 23 -2.4319295771420002e-03</internalNodes>
          <leafValues>
            -5.6421566009521484e-01 4.6043565869331360e-01</leafValues></_></weakClassifiers></_>
    <!-- stage 2 -->
    <_>
      <maxWeakCount>6</maxWeakCount>
      <stageThreshold>-1.0560104846954346e+00</stageThreshold>
      <weakClassifiers>
        <_>
          <internalNodes>
            0 -1 5 5.0907786935567856e-03</internalNodes>
          <leafValues>
            -5.8120530843734741e-01 8.9690721035003662e-01</leafValues></_>
        <_>
          <internalNodes>
            0 -1 17 1.8981256289407611e-04</internalNodes>
          <leafValues>
            -4.9934872984886169e-01 6.4106506109237671e-01</leafValues></_>
        <_>
          <internalNodes>
            0 -1 25 1.4659531880170107e-03</internalNodes>
          <leafValues>
            3.9159491658210754e-01 -8.3002531528472900e-01</leafValues></_>
        <_>
          <internalNodes>
            0 -1 1 2.9714971315115690e-03</internalNodes>
          <leafValues>
            -4.6874123811721802e-01 6.6460478305816650e-01</leafValues></_>
        <_>
          <internalNodes>
            0 -1 11 -7.4193514592479914e-05</internalNodes>
          <leafValues>
            9.1104131937026978e-01 -3.4139433503150940e-01</leafValues></_>
        <_>
          <internalNodes>
            0 -1 20 6.0818427300546318e-05</internalNodes>
          <leafValues>
            5.4244166612625122e-01 -6.9026184082031250e-01</leafValues></_></weakClassifiers></_>
    <!-- stage 3 -->
    <_>
      <maxWeakCount>4</maxWeakCount>
      <stageThreshold>-7.2097849845886230e-01</stageThreshold>
      <weakClassifiers>
        <_>
          <internalNodes>
            0 -1 9 4.7141709364950657e-04</internalNodes>
          <leafValues>
            -6.8230277299880981e-01 1.</leafValues></_>
        <_>
          <internalNodes>
            0 -1 12 -2.5733157992362976e-02</internalNodes>
          <leafValues>
            1. -4.7243753075599670e-01</leafValues></_>
        <_>
          <internalNodes>
            0 -1 24 -4.6401405707001686e-03</internalNodes>
          <leafValues>
            1. -3.5684844851493835e-01</leafValues></_>
        <_>
          <internalNodes>
            0 -1 4 -7.1917573222890496e-05</internalNodes>
          <leafValues>
            7.9061025381088257e-01 -5.1541823148727417e-01</leafValues></_></weakClassifiers></_>
    <!-- stage 4 -->
    <_>
      <maxWeakCount>1</maxWeakCount>
      <stageThreshold>1.</stageThreshold>
      <weakClassifiers>
        <_>
          <internalNodes>
            0 -1 6 1.5629874542355537e-02</internalNodes>
          <leafValues>
            1. -1.</leafValues></_></weakClassifiers></_></stages>
  <features>
    <_>
      <rects>
        <_>
          0 0 52 9 -1.</_>
        <_>
          0 3 52 3 3.</_></rects>
      <tilted>0</tilted></_>
    <_>
      <rects>
        <_>
          0 1 1 60 -1.</_>
        <_>
          0 31 1 30 2.</_></rects>
      <tilted>0</tilted></_>
    <_>
      <rects>
        <_>
          1 1 69 1 -1.</_>
        <_>
          24 1 23 1 3.</_></rects>
      <tilted>0</tilted></_>
    <_>
      <rects>
        <_>
          1 5 4 37 -1.</_>
        <_>
          3 5 2 37 2.</_></rects>
      <tilted>0</tilted></_>
    <_>
      <rects>
        <_>
          2 64 15 2 -1.</_>
        <_>
          7 64 5 2 3.</_></rects>
      <tilted>0</tilted></_>
    <_>
      <rects>
        <_>
          3 33 48 8 -1.</_>
        <_>
          3 33 24 4 2.</_>
        <_>
          27 37 24 4 2.</_></rects>
      <tilted>0</tilted></_>
    <_>
      <rects>
        <_>
          6 22 12 11 -1.</_>
        <_>
          12 22 6 11 2.</_></rects>
      <tilted>0</tilted></_>
    <_>
      <rects>
        <_>
          6 27 15 8 -1.</_>
        <_>
          6 31 15 4 2.</_></rects>
      <tilted>0</tilted></_>
    <_>
      <rects>
        <_>
          7 6 47 44 -1.</_>
        <_>
          7 28 47 22 2.</_></rects>
      <tilted>0</tilted></_>
    <_>
      <rects>
        <_>
          8 33 24 6 -1.</_>
        <_>
          8 33 12 3 2.</_>
        <_>
          20 36 12 3 2.</_></rects>
      <tilted>0</tilted></_>
    <_>
      <rects>
        <_>
          9 5 1 52 -1.</_>
        <_>
          9 31 1 26 2.</_></rects>
      <tilted>0</tilted></_>
    <_>
      <rects>
        <_>
          9 29 6 6 -1.</_>
        <_>
          9 31 6 2 3.</_></rects>
      <tilted>0</tilted></_>
    <_>
      <rects>
        <_>
          21 3 14 45 -1.</_>
        <_>
          21 18 14 15 3.</_></rects>
      <tilted>0</tilted></_>
    <_>
      <rects>
        <_>
          21 15 29 38 -1.</_>
        <_>
          21 34 29 19 2.</_></rects>
      <tilted>0</tilted></_>
    <_>
      <rects>
        <_>
          21 29 48 6 -1.</_>
        <_>
          45 29 24 6 2.</_></rects>
      <tilted>0</tilted></_>
    <_>
      <rects>
        <_>
          24 12 41 46 -1.</_>
        <_>
          24 35 41 23 2.</_></rects>
      <tilted>0</tilted></_>
    <_>
      <rects>
        <_>
          25 60 13 12 -1.</_>
        <_>
          25 66 13 6 2.</_></rects>
      <tilted>0</tilted></_>
    <_>
      <rects>
        <_>
          31 8 2 19 -1.</_>
        <_>
          32 8 1 19 2.</_></rects>
      <tilted>0</tilted></_>
    <_>
      <rects>
        <_>
          31 44 18 28 -1.</_>
        <_>
          31 58 18 14 2.</_></rects>
      <tilted>0</tilted></_>
    <_>
      <rects>
        <_>
          32 57 30 10 -1.</_>
        <_>
          32 57 15 5 2.</_>
        <_>
          47 62 15 5 2.</_></rects>
      <tilted>0</tilted></_>
    <_>
      <rects>
        <_>
          32 69 4 3 -1.</_>
        <_>
          32 70 4 1 3.</_></rects>
      <tilted>0</tilted></_>
    <_>
      <rects>
        <_>
          33 0 11 72 -1.</_>
        <_>
          33 36 11 36 2.</_></rects>
      <tilted>0</tilted></_>
    <_>
      <rects>
        <_>
          41 7 21 46 -1.</_>
        <_>
          48 7 7 46 3.</_></rects>
      <tilted>0</tilted></_>
    <_>
      <rects>
        <_>
          46 49 14 18 -1.</_>
        <_>
          46 49 7 9 2.</_>
        <_>
          53 58 7 9 2.</_></rects>
      <tilted>0</tilted></_>
    <_>
      <rects>
        <_>
          47 7 21 21 -1.</_>
        <_>
          47 14 21 7 3.</_></rects>
      <tilted>0</tilted></_>
    <_>
      <rects>
        <_>
          50 43 12 28 -1.</_>
        <_>
          50 57 12 14 2.</_></rects>
      <tilted>0</tilted></_>
    <_>
      <rects>
        <_>
          62 23 8 12 -1.</_>
        <_>
          62 29 8 6 2.</_></rects>
      <tilted>0</tilted></_></features></cascade>
</opencv_storage>
